-0.6205513881581224,0.895296242912241,0.700421133357891,0.03771619896101106,0.833250411486295,0.9546357597548655,-0.748904883824106,0.24378289666021785,0.21144788347472082,0.32888458722860464,-0.8960729491304223,0.47830415846147045,-0.5183992817298307,0.8536557114531832,-0.6266113380589645,0.7758946795932985,-0.09124812421128377,0.5312299426861548,0.3605615967405887,-0.9232080677692426,0.5565949823015535,-0.014169901459017734,-0.7649745999221628,-0.3185677013285078,-0.5228655211561087,-0.641887954473417,-0.08350658385852108,0.9974080084895771,-0.5449568502853677,-0.7857078817106052,-0.08150391384009463,0.47055618344609274,0.3931806521489399,0.0835481837745911,0.5242806123545484,-0.5382256073728012,0.20153280476304877,0.281651488121488,-0.6930581037453988,-0.3967989342292448,0.6628527117060009,0.9755751243834623,0.6625204071161527,-0.7755994213342298,0.051786337596204685,-0.3380586850972053,0.6524468786188161,0.03819763742813578,0.1120131839991462,-0.4307615061717915,0.5658311870511901,0.9213896294382192,-0.359258348290919,0.2530702650123965,0.621553066251258,0.9267551209541166,-0.0035120972726679824,0.6359438044431417,-0.5569374792214815,-0.4968880716043612,-0.3530637475590736,-0.3648221817325414,-0.5385738535067877,-0.4446432839498167,0.1608361131593579,-0.8904741762747607,-0.045671868361579965,0.28899505334971926,0.495290166986198,0.8426570926906366,0.10385319535464847,0.3435953916035253,0.19018888388688707,0.5540167889538251,0.29119012950816925,-0.2813932938836591,0.7087983817511293,-0.05707636478284997,-0.43412862326956064,-0.19930192177676034,-0.7093161219181506,0.3014939932349597,0.36065310031977843,-0.46030459554618847,-0.0224364150609939,-0.3284735336683306,0.6470628676419544,-0.4847217870789198,0.6353077995614099,0.1664713136388009,0.4666099845804093,-0.5552922040754567,-0.8794886465402171,-0.18690928207123306,-0.8511974412092554,0.25261627456705155,-0.16678208653160823,-0.13132976678288907,0.17824944765415793,1.030270589130791,0.462926768761535,0.9605491885536331,-0.5180202700605699,-0.26276545909914606,0.7220121518731698,-0.5246216913828496,-0.9119589215895075,1.0505005984078868,-0.5182174018066746,0.9314066687078776,0.40016706232430216,0.3319765496820107,0.758135805097455,-0.2458792280050186,0.3125918917855581,-0.3158410516754147,-0.7462518473552001,0.8442907826528522,-0.6297905730260963,-0.34437018748678877,0.10737881207634563,0.48736343531713705,-0.5910622813022147,-0.1644025365065672,1.0325586721692968,0.9502050254388912,-0.49041210676975155,0.7793098325422557,-0.4156538885362954,-0.07047301942032587,-0.7900808953645554,0.0612944415073859,-0.5222543579642362,0.6398665781741374,-0.025018197212869416,0.9789808958958469,-0.4131404682042505,-0.516248173278697,0.07794917885163297,-0.9282372747226791,0.7457555767074503,-0.27687958120282924,0.7529903891724475,0.8005907806054574,0.12499048990555905,0.5944119132101912,-0.6775712003948257,-0.635305280599714,-0.5406174420942151,-0.10840142055711546,0.1947456341764397,0.6717434926114577,-0.34498026359754136,0.8830938726171517,0.19099651411439814,-0.25817613871585726,-0.3691928493941263,0.21641050264507636,-0.7070407831813287,0.6782442660846112,0.37400217283926246,0.3257485721938494,-0.7116491807609965,-0.3034488063956434,0.9374781013417689,-0.05790500639729922,-0.4735808380464936,-0.45262087982551147,0.5645023360019846,0.7018763592367884,0.4673550921713334,0.0727025103148751,0.15769501290778706,0.9712793674300941,0.9266663197911335,0.06667048773364993,0.1359673291299033,0.050314790025637074,-0.6093899522120899,-0.772372562143793,0.8283028866169869,0.94019420459652,0.061797752138812986,-0.6899531509751083,0.17463413434724545,0.4581407269134986,0.5524416760177756,-0.3883767294698714,0.32223685265037366,0.8547191546294574,-0.0823025464213198,-0.782270511452486,-0.6875715133972337,0.9497524924800085,0.12232747415299527,-0.8722504008902513,-0.7563967922031006,0.2114082691547779,0.5191515326893884,-0.8255033834589683,-0.6738360056011602,0.5268029437989964,-0.6527123001466034,-0.9046559742868628,-0.2775365782886362,-0.26284036214725087,0.1709221476376294,0.5752871474378826,-0.8395127855091321,0.3588172936385022,0.39318449134476446,-0.819174648671347,0.4021232603066523,0.19808558568030235,-0.8802186734720775,-0.1667205500419939,0.8759109657044087,0.09439011611360261,0.9789494895533164,0.22224930438066084,-0.7612287159462653,-0.12953548440457338,0.10530644301304834,1.0584776390668107,1.058607575790631,-0.24489926927634095,0.23465286739237307,0.29421258265282535,0.7761420354074063,-0.7562519078898274,-0.10017335504248309,-0.1393750778735351,-0.1617298629649606,0.0963112584776111,0.16595781862680428,1.0671509085714441,-0.32491595614631635,0.04245801509291786,0.32414704910309916,1.0559754501819636,-0.1426963396439709,-0.5583387283869801,0.84046326668549,0.1563715186139731,0.11606059511509716,-0.42005725140971023,1.0265068228058805,-0.6398693343810019,-0.053957247279356746,-0.7011907989367748,-0.5215045105736007,-0.14218702883136394,-0.3311704267504007,0.9345614650535017,-0.4446462999925437,-0.031275256018807554,-0.1922054401674219,-0.36816222192120235,0.6484652861712149,0.6448057975732872,-0.03172161262606138,1.057312432931912,0.41592130586371906,0.07773198228244887,0.4980881161345951,-0.6103848839474416,0.5305958383831044,-0.43359272500985746,-0.36286244848570676,0.3379885180864948,0.8991809108215391,0.02795070409909018,-0.2423633223730104,-0.5859337100836769,-0.6606441528859085,0.4857840586701414,0.07425363829551893,-0.7130904309580633,0.8305707660750933,0.6385322451618444,0.08398608917824557,0.05426747221944381,0.3317058670484317,0.9086950621769451,0.438659263572894,0.7975855756501852,-0.8039244611786384,-0.06026190265539102,-0.5894812198862766,-0.5015986274457931,0.09992756525708706,0.49050504060805933,0.40261795489173796,-0.561130266988432,-0.31058709289934655,-0.06194911614276634,-0.7703723283138545,0.6189662220840918,-0.6894697279471699,0.8755427536033776,0.619861358437639,0.8305951216576507,0.0504127528956913,-0.04583237675996694,-0.4304530110500339,0.5313124038206436,-0.5037611455175318,0.6748599613251384,-0.5731701583154022,0.19478238574150775,-0.9003692110355052,0.5850814482361973,0.8376404119629047,-0.7253230470508675,-0.27499494995428153,-0.7041084481594692,-0.9268400503879982,-0.7997009685679358,-0.8419059460501609,-0.5371075380891117,0.6185374243442215,-0.24503129258515974,-0.6010647806458193,-0.11199943925400736,-0.28688096896167375,0.10677434178211162,-0.5451960245774113,-0.23463144510041278,-0.5317330074812355,0.48561588308150666,-0.26233736651455264,0.48043081222439643,0.39759840644337846,0.6773794047187348,0.4331063876463715,-0.2596316250706109,0.51619514606786,0.6541155515501081,0.6159080570635834,-0.12363779720255857,0.8173039995310555,-0.810028889242509,-0.3261973680680971,-0.5150212134750536,-0.16289380484090357,-0.28395045090473986,0.9227090866177069,-0.48292907118536543,0.031597303118415916,-0.848365816821757,0.12880597366775404,0.7979898915243421,0.14853828558643162,-0.8296645635282235,-0.01394107606284756,-0.47517461693534696,0.6021572510730707,-0.21858526116549895,-0.0596842708825487,0.5698314728975175,0.13242390655079278,-0.6277443064825602,0.04077363918133762,0.1864224539976438,0.012010694483847355,0.4228204549444335,-0.7482240610984795,-0.0907253567963838,0.6995029333322863,-0.47262615871640973,0.22965231900630179,-0.34743104226834726,-0.22901153978464284,0.15382633379383645,-0.2967433326419759,0.7053581389760871,0.06612517478896643,-0.7543622065827328,-0.49655354764152854,0.7898350155556816,1.0641161508719488,0.7492445613178517,0.665857499762256,-0.5926176212173228,-0.6151862068354516,0.27122447796075166,0.1501221719664502,-0.6283166786602313,0.27713789864473803,0.7050760491416898,0.35837108127712775,-0.3102079948046439,-0.017316069039166618,0.5497570670557788,0.71887546185868,1.0191836950940723,0.0588095225845893,-0.05304811556756119,0.03836227220112638,0.8484832337568861,0.5367976019851012,-0.5734479204863988,0.7143247433769481,0.6490302927899919,-0.005013387321448995,-0.2660880813720788,1.0648889422594514,-0.8360624746791699,-0.2717420093577963,0.3721035452705517,0.11222648527024245,1.0499014840881793,-0.33519407362243364,0.21658530354512523,1.012275091915241,0.9504531331802794,-0.6011197921496539,-0.883066957428979,-0.41000404625270764,0.8867340413074688,0.3630445378692662,0.9650951376671674,0.9249602959354871,-0.8119549304785091,0.6109317075797526,0.5377262924770877,0.28600582204587804,0.9354641754295582,0.7582892891548526,-0.7542031227747276,0.663941001074955,0.7020366719917946,0.6495696262363272,-0.33411902941228105,-0.4067181436488911,0.3179056824928626,-0.7804115699580182,-0.3969639541729952,0.8454462161191946,1.0190883673960767,0.2517366451022055,-0.4712886253612765,-0.7156625585170121,0.8292544098718971,-0.23241422866498976,0.5762657913429526,1.0627208528455971,-0.5713343444184916,0.3284826173594107,0.5073597237325477,-0.3209748868062086,1.0418221334414124,0.9557957347516074,0.1594958522007233,-0.32450045871257255,0.8472617279615099,-0.30824509569206976,0.5884111595082201,0.013921976629866769,0.7808925314584673,0.3038638242697098,0.5658170073008782,-0.4205640376360111,-0.18349918785819413,0.4660124436373606,-0.7963477556363444,-0.035280094055379636,0.16284383852421416,0.043993181274631976,0.2492663768682585,0.2195774024750937,0.2105491943845608,-0.8434499528740423,-0.8355542428669659,-0.4193163534907622,-0.020310755607240074,-0.4880861890433615,-0.5643148033071991,-0.8602295787284265,0.10625844401237275,-0.6427635046947767,-0.8680913911258895,0.786284515254087,-0.7304128902333954,-0.05148889430624354,0.11945416605739616,0.3650180286650518,-0.47983158792938435,0.9398382733246061,-0.24655206120395154,0.4869156302221863,0.6875347837211249,-0.659485015063623,-0.5294581798327116,0.7192203226686215,-0.3316345466091017,1.0216272987537114,-0.37497368676669723,0.2534729881912472,0.7934289447243815,0.7882787611106411,0.8036071790776064,-0.23723906051870203,0.45962997374105585,0.11276794650657185,-0.9151355270260398,1.0479931891017753,-0.7530816647319688,-0.7138986236713433,0.24489251007112703,-0.7242823780798283,0.7250471708434244,0.4829796889539457,-0.28661076563466653,-0.4690602803154063,0.2874289518335469,0.46291274927655734,0.08838939594873374,-0.05736858500878619,0.7729357432442717,0.237084607092053,0.6385595669678145,0.44662296404479546,0.4996262907891329,0.710064351159642,0.9491454518684982,0.385847365571991,0.07720266026545987,-0.526462298053771,-0.3674096748180246,0.7103891912362185,0.5291987306709163,-0.12525868329698006,0.5797376758917575,-0.5941070165791636,-0.3264910530196569,0.5574806991026102,0.8531213649840529,-0.29667921236433276,-0.7319574267288246,-0.6690351777133104,-0.8983206350848109,-0.6592800110740257,-0.32358239227422,-0.631443442983688,0.8281708994711533,-0.055960930855456475,0.49793705497021673,0.7352786536352617,0.28701930261728664,-0.7130684379321365,-0.35023059987362254,0.9053244103475088,-0.5688716603753219,0.8332299135162161,-0.04622628054857015,0.8046979806392717,1.065300452028837,-0.07558323865001645,0.8642419905867763,-0.8520291296182579,-0.7565252764827569,-0.8444620907467674,0.32304823992780013,-0.9302295594557152,-0.5105946440550811,-0.19760595763168506,0.9339067304094821,0.16315339093606349,0.07700680319668494,-0.8218303037545348,-0.8480478522603562,0.9994644829738257,-0.23229945347895511,0.3798851905894201,-0.4817983498285978,-0.3391124188373191,0.37165322399548356,-0.4168596422461332,-0.2942742475357042,-0.7488317337362346,-0.009277107499792379,0.9739085689610991,0.6725368887571855,0.24156226656787222,1.0603828132473625,0.007563143349055871,0.5454747296879349,-0.06927843802642306,-0.5543073469791568,0.8291645679112897,-0.6003095250785903,-0.36843699218801257,0.3290491035144561,-0.8411412788199862,-0.7747291889497977,0.1289584535048764,1.0480838615269783,-0.8358420476092218,-0.25733829891543475,0.8129940536415406,0.45605068436971213,-0.8865427917423324,-0.4900856182720506,0.7963718672336101,-0.6910799187895499,0.7752480927122073,0.32467347095395144,0.8207955127233996,-0.2503566859358716,-0.8934602003556659,0.2467329438869937,0.21532784517037856,0.4465668433205006,0.37328914831063514,-0.4228878598231713,-0.8389927184982561,1.000969164438342,-0.4339179822123967,0.060271509245373805,0.8020240465653722,0.7073594738660497,1.0422002749414245,-0.9296467259810784,0.9823732096314979,0.7156961778129899,-0.739089042918116,-0.35171363551232376,0.4065722970702626,-0.5966901213746564,0.1450491573345687,-0.6186057354738771,-0.6396895942309905,0.953014321493163,-0.5127930081986642,0.17274786983413762,-0.3186423886763693,-0.46000569637469524,-0.28007924988131,0.7323339603426159,-0.21274721911781208,0.37752696661236024,0.059450801691631555,-0.7129089274553989,0.19678304115669643,-0.6641476138706676,-0.5623842653080967,-0.6519864519125723,-0.6533497700347847,-0.2191075566274257,0.20867327221513943,0.20707088437517485,1.0373941782843374,-0.6620784441785651,0.14018472840794785,0.743513124931383,0.5122708672245759,1.031595549408125,-0.21792633787203944,0.7704441138338397,0.4690021487985631,-0.7835449159650377,0.4847538248959145,0.8379159922979463,0.6770124069958875,0.33804626689336154,-0.840468098806246,0.6253593035836448,0.2825909873392861,0.9721310821505627,-0.3084256748715655,-0.3643438940568024,1.0188596931794236,0.49564941040477345,-0.20538389728142542,-0.825418080225872,-0.24001652930200815,0.5492406626777835,0.24724939637089516,0.30172222162159684,-0.09504676109308956,-0.696941336560306,-0.24265823359638497,0.5782548167253195,-0.13337205611749356,-0.7497078642797764,0.0005127128397948667,0.29389851076785745,0.5610224565230834,0.13619523070607512,-0.7546411319723639,0.13053125423661846,0.11129798941347585,0.030915393202252263,-0.46850982931717,-0.6206588686174707,-0.4730175860298758,0.3571695926881449,1.0419106252059938,0.6170831920812144,-0.11441263983882743,0.3140627719729938,-0.6113216461190453,0.050080084600210475,0.7006974724105998,-0.1438283305891654,-0.5016603275668573,0.9759419132310798,0.5106939425253959,0.051472739608711786,0.7227862992242561,0.6057622028067869,-0.8448769572094404,0.692734766670153,0.6413266552607556,0.5749657158461164,0.611659655689556,-0.6645293083820539,0.5784506571600708,0.8778807411723116,0.08230869810565192,0.23490306348831883,-0.059734402475967445,-0.13183337366824407,0.8502088466012169,0.866115230963438,0.19646347260200261,-0.2155873331307199,-0.8889313026106928,-0.5485648797382787,-0.5235073421154379,0.05123058422575146,1.037785191597615,-0.20575302171603624,0.0011984237137021704,0.5852137359728845,-0.8711151915063474,0.9221879140445531,0.16964150233358832,1.0280274380104046,0.3585070599167109,0.7249934738828302,0.6809429104716728,0.7509519690638949,0.988227302876371,-0.5729486161782723,-0.6609102359703553,0.8257362832770668,-0.6487301658288714,-0.4428216514423064,0.5950549330303675,-0.14535962924222404,0.8654940772314151,-0.5959988459558004,-0.7495578492832508,0.5832011597405945,-0.8416234071285694,-0.6669174796871783,0.4009337798898714,-0.06713563939247326,0.7323397074167152,-0.10712972416158832,-0.8386048432995589,-0.7976524796866243,0.7870571884348413,0.16021592060164216,-0.770728194534776,0.5101573940305714,-0.4182365289245255,0.6896073553413792,-0.30938464541253846,0.17021277872568388,0.7493456704052049,-0.554899376111653,0.8337664803639974,0.031838068868846485,-0.05487138423725293,-0.749591199562858,0.15177814972613526,-0.372410124110053,0.7304623185894151,0.04992851648691503,0.528478145599222,0.2883336220914845,0.17792704215419153,-0.9210454843569725,-0.2531106305183943,1.0460295740152226,0.7837460510550899,0.3809171433312442,1.0623075913320577,0.7128632673660461,-0.7116773031595308,0.6630175718660839,0.169317955077536,0.438580821543469,-0.28162144162829256,-0.5220782283552579,-0.4472313423302073,0.6423543422546566,0.9597534948905371,0.3362509484155923,-0.7094683825641458,-0.11487486355430275,-0.28715642141500436,0.7446178725988898,-0.6440507118143631,0.5077210839122591,0.16848389722450152,0.13034418751739335,0.40451939011528354,-0.7037512381861534,0.8920853066531503,0.8010517925046382,0.12880908434762753,0.6759271366229097,0.3281426459878694,-0.5032124492363729,0.8139080609076769,-0.12570588591069867,0.7207513249900422,-0.5693973870347261,-0.640059882343127,0.8510840593006211,-0.8594218693977561,-0.46515712735060744,-0.8641729637198509,0.7538843872285551,0.20899366223282942,0.9971918252253524,-0.6528166100746814,-0.18146617726563857,-0.09679308994547754,0.14688691546260554,1.0206528935212977,0.20983145971558528,-0.06469105280611466,-0.2416692040463607,0.3640829427423687,0.20190128236438204,0.346213952804924,0.4401249456131367,0.8111206373205974,0.7851742800356752,1.03529933238769,-0.38988572546368244,0.8211994080695791,-0.1430187824084476,0.4375264791929442,-0.7417135379986431,-0.4751216122026337,0.6762594187456493,0.8252060850885244,0.21849538993018983,0.4360388546011639,-0.14792641254841238,0.6679371728684952,0.735254408529234,-0.6557600287732827,-0.06581193964297671,0.8807541691733213,-0.8613465363715506,1.045358267163903,0.9490934865499758,-0.20093123067175098,0.0047255910760614726,0.40788853083475113,-0.694539680894631,-0.4690092513326258,0.47656992803873754,-0.08058613184262153,-0.5718634364225087,-0.2805558391044436,-0.5291741975864815,-0.29107602333767923,-0.2557443400535547,0.18533671434772825,0.12878334117704343,0.2220481878954345,0.1714705819927373,0.881050492514042,0.8496303056508988,0.36256661016969366,-0.49320309682837576,-0.6064753195271596,0.9417096515296755,0.39537277319462466,0.7564849052021444,-0.5498502812857411,-0.44177814031069484,1.0313713483096854,0.8211591408644582,0.2734714566792032,0.14529215425064287,-0.2791408212125741,0.9548155902708788,0.6574234688510464,-0.03719689212860533,0.08397038779920574,0.6907353393118788,0.3104840545704187,0.23797872776166165,0.9762517370640421,-0.15838942013788831,0.00144054455937095,0.7599342747800525,-0.12813178076820594,0.5116191519535725,0.5269526711370105,0.44894725578988026,0.7114553005369996,-0.6387673851236949,0.7824752825942926,-0.8680766170222464,-0.37134632954548147,0.43333482225882697,0.5233530787134836,0.31124103964131805,0.5932714884509566,0.6230395989301335,0.8901036214953354,-0.8509971859905444,-0.8552774692196224,-0.21125968748051158,0.18670945215392437,-0.5856393533298246,0.22893122549149855,0.022569831580856372,0.8923129959373249,-0.6337097992851647,-0.8945543017995786,-0.7677588600906596,0.5258776833715699,0.7721820861653553,-0.6076690090032119,-0.45263001987460083,-0.003700436380161461,0.4727584655936004,0.6031931845506083,-0.4435002568661789,-0.285837002481,-0.48851475452567494,0.2093817636513456,-0.46771556048871016,0.5695646215703166,0.3290862331971656,0.7172724722819909,0.6603174765835481,0.14446938419694824,1.0582836378328748,0.46655306504248867,0.7116162349208125,-0.022778001247934415,0.40972301662790495,0.4054142950049356,0.6777075975623085,0.8568725915108272,0.5033234619695884,-0.29777060576820497,-0.7378262876252969,-0.3818514357641373,-0.3922212279983887,0.8289983336611347,-0.2171751980984725,0.12221701619246006,-0.7071010747213381,-0.6052801672044491,-0.666635538384068,0.3172038071831996,-0.9021383032246463,1.045019143874983,0.31328594001806825,0.6537502896886155,0.6167079851815903,0.41685384002408604,0.6852283182923965,1.0396249834817197,-0.6897545838188331,-0.6124331074090611,-0.910650727735478,0.6262104661350475,0.8119217238084934,0.6335860454133756,0.06793495675453134,-0.24771639066431636,1.0361143472078436,0.9368146908972724,0.2712264225370421,0.8132351739809697,0.5353545480005927,0.5760681370220452,-0.2535254533261094,0.8483623277871278,-0.15439453573357295,0.9891062371230595,-0.49712851110464645,-0.5307479210165543,0.4101314542947639,-0.9190161963567315,0.8583653937418069,0.2363745968327527,-0.7768229883011698,-0.5261960913399244,0.12257959086937227,-0.4245007149780053,0.27284410362448436,-0.5066837825660768,0.42963632631294757,0.5042940691802699,-0.46704624516250487,0.42463031242474153,0.9470764830330033,-0.28042536590340467,-0.657739625249559,0.31885538779037664,0.714077441274389,-0.4643453478724783,-0.13247824892445584,-0.2621533757794251,0.9535583806253543,0.4872671546939971,1.050942800556517,-0.9218470396972546,-0.05833616036413403,-0.7990085259501688,-0.30861909073702365,0.9947425279784881,-0.1237257557002821,-0.014317182123215548,-0.08616455004239658,0.22848734294697956,0.17018464983961726,-0.39951856895138155,0.2752638124911585,-0.7115292201019775,0.11228377604583793,1.0491838028313893,0.5747318847491755,0.1329290173606847,0.09995475452341737,-0.09525845610321304,-0.22985690921118385,-0.08372635886450525,0.764620620108697,0.1677638515943451,0.6246553671793748,-0.7227168496934347,0.7176729772131595,0.11692993757172755,-0.5770594473298006,-0.6920730973732,-0.48641229983625944,-0.6708451909663945,1.0079447808984052,-0.14438064916416787,0.824255553747062,-0.4822057152372912,0.15048855034925154,0.6205671369076028,0.34627462462161,0.24876149878551765,0.638044788884978,-0.15863466023812367,-0.0003086287769558749,-0.30729414564130597,0.2510840525964738,-0.7454224034267384,0.8037161915941463,0.14989802144202677,-0.4512893441076395,0.43597733210414924,0.4629162202353525,0.5715432871841389,-0.10810312651609143,0.41827128248152673,0.6220646214916562,-0.04618572540071262,-0.4742419697256276,-0.3174589768005368,-0.6389187493922918,-0.843270085523908,0.5021620571637448,-0.19910669040650142,-0.6470584352971135,-0.40666585372673686,0.0075882982675058155,0.5660396668369378,0.44938760516763504,-0.8300871549953638,0.16118301775243685,0.30020305930713487,1.0498633813146683,-0.10105948833929866,-0.09056059164872934,-0.527080075423505,0.021631664179574316,-0.8728608565587174,0.8909420770758113,0.17255527896442918,0.5564891629964689,0.7996516199327112,0.744821886397706,0.6450963621909146,0.6364131518925887,-0.7881200987143643,0.5135026861595381,1.0548946689572989,-0.8997747818645901,0.4143189870959281,0.676170691906986,0.4231165800375443,0.2519580498288155,0.28535839561154197,0.02274024982132288,0.9542321605652694,0.9003438862310719,0.19778504303961542,-0.6923810067437538,0.17253510760589083,0.671401419528577,-0.10662147560085208,0.6749972496198656,-0.8898801810499438,0.40462539318293406,0.936148611468628,0.6930883869634624,0.6388442421648312,0.15701250957188043,-0.45438035579745367,-0.3314385083758877,0.7642727334970402,0.895530054256947,-0.485634304094959,0.5256812791859109,0.7703443187003228,0.6434934073383008,-0.6259479036475163,0.1241954354233974,0.8271527466157281,0.7415043376382534,0.7433523854806824,-0.562447934597532,0.22408340377542654,-0.7670439982220659,0.7522959879230618,0.3757077435669017,-0.4793578698463342,0.8708163922314563,1.0613554981567677,-0.04365887562861739,0.33802592163024064,0.3263309745191057,0.31703556787151266,-0.7954844903985953,0.3771371262388222,0.32900498953833784,0.4481974999720983,0.01938615984772845,0.36918389156267645,0.39043312162328775,-0.22431014800207388,-0.7955479423066053,-0.7903397781178153,0.25830529833780014,0.12492840909723273,-0.3142259616063071,0.6875575194769877,0.26988261117190654,-0.9090262824062246,-0.8128658251438375,-0.18501470208251092,-0.5575239180547517,0.3182312339476448,0.2967333136939176,-0.4107635055622891,-0.6271924318690613,0.5411265486681817,0.7066861744785154,0.5738665201824519,0.4582035817544821,0.8916247738570698,0.002111857080183072,0.4591691617861476,-0.9038117479656608,-0.9137247300091841,0.008221025221806856,-0.38916458459237785,0.28644669075149,-0.817854326130281,1.0019448686103238,0.1806110153086503,0.7023022781887068,0.5116823587751924,-0.2616344006184733,0.12148504055582676,-0.8518902802364884,0.08144146811398119,0.8517167071846728,0.2835508152227285,-0.7569861879469825,-0.638535236711168,-0.43140864341215107,1.019160226372485,0.9205173847638023,0.998560686574412,-0.18607650600859652,1.0505785849613511,1.0499390218583937,0.7597446952090162,-0.5291334302262618,1.0017136770193535,-0.8470626750413338,0.14378871100010576,-0.5770331814981414,0.14874872895668412,-0.6867331385806036,-0.4183946657868218,0.6780629575873772,0.46636880119699486,-0.832593197309509,-0.5673558116414571,-0.5960731961615621,-0.3463794205186425,-0.5151674518438563,-0.6457678683065781,0.7892514127654203,-0.34272094846858286,-0.7725235620231162,-0.5920491496938222,0.36018891546899884,-0.4577420677922993,-0.4585926920123638,0.51815856391409,0.14480398540685754,-0.6335048151245745,0.780435719236121,-0.3571637085034935,-0.10681695000556972,0.8387498164937098,0.8072761613430316,-0.13576342196344918,-0.5099235861205773,0.8573981215261169,-0.0955125852411933,-0.8084247945167483,0.6239093695312302,0.5951456396792744,-0.48243066362156917,-0.3756911363299846,-0.2783504721887015,-0.5964699974785791,-0.8097446632953696,-0.8772245481114779,0.8763388912949134,0.6063404296445655,0.8263211196884873,0.9551667422545624,0.4043099103187054,0.4077863454259621,-0.06100605044744425,0.17900340186299374,0.2700715804702024,-0.29104427752650747,0.8221443216581915,0.49003359966759374,-0.0999188015670374,-0.3389130686509993,-0.48112845380577157,-0.35144552247469946,0.5041499988267771,0.11035146404423682,-0.4870947617296048,-0.27573015780113763,0.28903821197906604,0.24901527832656278,0.8188113112003573,-0.897542632868683,0.8721729363386327,-0.39681559547530737,-0.5809549921263565,-0.6039354631894186,0.40191413189412556,0.07025345239543038,0.311607135087248,0.8559896412305493,-0.5593149358432518,0.7691741591171876,0.0712555020590779,0.8518869763699067,0.4484553567257324,0.31761260743267267,0.9975516807271984,0.44746846958210623,1.0251788749291044,0.5183709387963014,0.33927787946913807,-0.2726168004136858,0.697003111053163,-0.7775339688663251,0.790051201102452,-0.3715917000889816,0.5636763373819578,0.4312731995908171,0.5524422397954086,-0.42188906648349395,-0.13945977664342327,0.4903121302581356,0.95150456530322,1.0087678550490302,-0.2853763126383168,0.26633109467052535,0.8242113629030993,0.7407895688588545,-0.1872043479886514,0.0965005526741549,0.6592790175260043,-0.07584629034714471,0.4777570257048048,-0.8308230797425494,0.7900167519210347,-0.878246022366613,-0.7568788543927895,-0.8094679851642578,0.23688671024537603,-0.6048211541772642,-0.44660198852887856,0.0846862525637839,0.41971377207009436,-0.2623351697308464,-0.9097139973486162,0.3086338633022172,-0.6922443916460309,-0.48984681453105533,-0.27164724502678805,0.5350528579286751,0.8978053804523182,0.12082508558467991,0.29826475136290304,-0.3963452856072593,-0.3678810903532829,0.8038615223272642,0.5592107872573933,0.41149660297130325,0.24336983152035374,0.5605818784339789,0.9682486172015065,0.8776256640663659,-0.2095240194517626,0.9375426479780091,-0.8685447108179382,0.6340764388999945,0.6917570196020758,-0.2333064909668996,0.24222718686782152,1.0129938473172373,-0.7191824101078504,0.8503956066134509,0.30865991551100347,-0.7323728014654171,1.0155433834231717,0.97908876991247,0.2853433575664947,0.7352340087737806,0.4928466374662183,-0.695840314134616,0.022039565713885146,0.16405861913734834,-0.5420044685696574,0.6458975052678398,1.035397110491464,0.07905461271131435,-0.49503810938961884,0.2202509711250171,0.31136145041020813,0.06454478621696544,0.3328932561524967,-0.4256357466696625,0.1094358036985179,0.32321792742723204,0.12808733949139164,-0.05574524205427099,0.3325880390156764,0.854177863794139,-0.6829780455444677,-0.1850743697915612,0.6271346697848833,0.770217199048857,0.813772329653954,-0.3222874163968796,0.9065093071655049,0.9644052176455493,0.20020020216354342,-0.6385618066189244,-0.29059249698287243,0.23057227929669807,0.9813817308685524,0.18329497904097547,-0.16353304642387517,-0.6337723408671815,0.8894705304376377,-0.4931885747719674,0.5241746858014927,0.5682143221588264,0.6571888302154344,-0.2615529428773817,0.7856959231498065,-0.9263024274761721,0.20825658735217334,0.7602549066674892,-0.25892584346910436,0.7237498111867778,0.5451012248732904,-0.7178660220825716,-0.43171992097779993,-0.6317176889787973,0.3798615841808555,-0.6643546028356505,0.05291056736799099,0.6347740685984257,1.0537791964600354,1.0518522815190068,0.9977563221893144,0.6643518316270721,-0.052793042407656705,0.5378837984738929,0.17900417041460592,-0.79740441138405,-0.7162108171408911,1.0023425835494209,-0.16851633741595126,0.997400948322481,-0.4533833009882917,-0.009870517091035341,-0.42875839279587996,0.1937328695539811,-0.17987618386781304,-0.08463293035059997,-0.789285486596779,0.056902177663785636,-0.2819102289894137,-0.01195807385600252,-0.12792324059970292,-0.37204767041795267,-0.2722692271377214,-0.3764920510404512,0.3351191337967699,0.3897324247397949,-0.3439314483322324,0.7330484239410898,0.9980728692659327,0.37044127677520594,-0.3268436934539118,0.34306588060515414,0.5072278003171562,-0.5533735729976362,0.7274119646690395,0.6180938434220046,0.3285067031740219,0.2814436263720196,-0.6885149282424176,0.10524212236494368,-0.00014278660355743114,-0.16770852747352966,-0.18227838678611843,-0.5475407762742504,0.4107092191558875,-0.544992527754165,0.045913588358758035,0.7400786734859898,-0.690673631762634,-0.7565997862906076,0.5345711384708053,0.7030334470816076,1.0161260649843638,0.09235949315975873,-0.1831652032539264,-0.47916043943566644,0.858768720305415,0.18123252415076976,1.041248454003012,-0.3469459753063446,-0.463178784221449,0.45755339184519167,-0.9136619027268164,0.35797835991523447,0.7180188831436455,-0.7573916288348298,-0.645466912387412,-0.7247039912914225,-0.913444690929425,0.7563135773514823,-0.8477896898178089,-0.9028923198723132,-0.4712324948014836,-0.8547122271027475,-0.4291556912918654,0.3368478607540922,0.3602713563570504,1.0355004402378318,-0.7749478255472407,-0.460962293073609,-0.20354001742543643,1.0223508513166295,-0.8426623443671052,0.4699536636746566,0.20692062950927095,-0.8432087511073,-0.6548118423155799,-0.5832294542483686,-0.19320166536016306,0.005893411277917779,-0.16413442841465914,0.6559992406338012,0.4975892955832636,1.0245924937768571,-0.6285454235423099,0.2034470496083677,-0.830180939293872,0.3108240498768682,0.3413435671304124,-0.5537914163224485,-0.9310443182397395,0.29475500529077475,0.7002713532307724,-0.4979738909800764,-0.3514490993086789,0.45211410214795206,-0.6051052578862778,0.46360186641193846,0.539166909045587,0.3137314743735547,0.6853556758025271,0.09068814804835112,0.11884024787886491,-0.4622824651548211,-0.25071140346875964,-0.6137547063665508,-0.32207973667304984,0.6922735750082257,0.5055456920238551,-0.1418065231118535,-0.8482743143587591,0.7635132897737112,-0.30418344835273065,-0.8645057586991102,-0.2832078420720945,0.7920032417370907,0.6976944583033705,0.588512373212814,0.18475299309276239,0.4311172068037552,-0.3725611871232279,-0.46572334705299745,0.9242785552740421,-0.786628418263395,-0.8395493439323974,-0.6625729790662408,0.8091120468250047,-0.8589969820704403,-0.8043123113643266,-0.225680755587247,1.0526154557915963,0.4089009200805361,-0.19996019751119568,-0.7130302860575081,0.4727340643976548,0.8065423840180389,0.3394226757471009,0.5033081738266156,1.0581505657428518,0.0021556563411449766,0.8186732211001336,-0.6522797089995324,-0.4109836909265771,-0.42509912315272497,-0.7921736230538808,0.28513441386663985,1.0447055250657267,-0.13298798266712178,-0.21530766517948716,0.5309644886816738,0.49811438582220424,-0.10128232013132238,0.7853545182068472,-0.7603381541128112,-0.10789172503782965,-0.52706904330842,0.09539516402483876,0.12062581678335832,0.8527803158096011,-0.1976285878768626,0.9352082145391222,0.4302827101649274,-0.1610337641444021,-0.6241400106538034,0.9619884147693489,-0.08951490439543612,0.5388945161444767,1.058876033879179,0.9864036948546948,-0.6865462309522631,-0.5846985058585003,0.7951920131948901,0.9388837858452944,-0.7289822826621745,-0.813276117055801,0.4570110716020965,0.3761023488576272,1.052116582934057,-0.21645126872928153,-0.7636343616501365,-0.8827651251513425,-0.07442899447309798,-0.03392587805958978,0.9440382291636389,0.7932610701524815,0.4847674935138399,-0.5488092012378235,-0.4451619129200522,-0.0664940173188809,0.21871645609613624,-0.23218782445655617,0.8461620502443824,0.15042065770747987,-0.9029930303186794,-0.10435068536987804,0.7648018566058433,0.062492886680837884,-0.9039138508371484,0.226854360769981,0.5337598346720195,0.8766074033308863,-0.12870844318324973,0.5425516056318846,-0.16525413364698002,0.6525775497376244,0.9040824518939153,-0.5839328472109572,0.18853028768360894,0.5039682366967045,-0.9212680180335381,-0.4991300428681731,-0.8777332099567138,0.23962168113881796,0.07708665890917538,0.6452866694377689,0.14405605634228824,0.7578654327202196,-0.3285505057711146,0.10690546099364706,-0.6991975808731768,0.04122282315349349,0.8085442625578877,-0.31828939693518327,-0.8372879077939551,1.0261986895607471,0.39065945826943566,0.6338660167120475,-0.8922993745255666,-0.0036718101434326956,-0.6621614316657373,1.0459068454412297,0.06017406060783561,-0.6487917677400977,0.22153476781768416,0.07648921932909605,1.0242574269335705,0.9142874962774602,-0.6862016996673382,-0.1920300706855956,-0.0948595062876961,-0.22556079124335626,0.5206556295081595,-0.29080582258635945,-0.6778099705910087,-0.34912511454383005,-0.21582791469934412,-0.054557156815117934,-0.9098360185083963,0.8474483098405389,-0.06485262990805134,-0.06644725613468613,0.21120431230654485,0.43673384373139623,-0.4922924504231815,0.8752639404513983,-0.808041460261182,0.6741270925387338,-0.12397568739486434,-0.5740431849039905,0.42778031044418224,-0.24311747582306106,-0.23632248904205683,0.8134155668610669,0.4155201422509747,0.2420097146365918,-0.09157374279662196,-0.6328091186453001,-0.7086710744766723,0.571607421577441,0.5902191279078651,-0.030948348761661606,0.9945781938324365,0.6496233348479455,-0.3777807771226224,1.0588841018052335,-0.8085182581276568,0.9072875481522945,0.7110481275842625,-0.3733185905253213,0.18714603476878627,-0.22555579917495824,0.596899975566335,0.43448179571186857,-0.5406446266875781,-0.5478594582835544,0.28341756849275274,0.04877374786357866,0.8092432376481521,-0.16170615739298697,-0.5169251003158327,-0.013274219283898091,-0.18710836665850783,0.575073578477605,0.4243943360156937,0.22932002074280783,-0.3388037327987156,1.0234204593654632,-0.37759551702049005,-0.12994435605508542,-0.7410257319892525,0.6981349067697166,-0.5382684759607173,-0.48838705732057586,0.09794436579863146,0.270282031138519,0.9636273064951999,0.527952598146072,-0.6754709158393702,0.35771646285522124,1.0226156662016728,0.6513220850882518,0.0953816715682725,-0.7397700398431543,0.7625960585475274,-0.15623606483664154,-0.5363690376030875,1.0663992843816912,-0.568194038012245,-0.18768116966618215,-0.42568968103138966,0.4083534204763098,-0.07251267422175572,-0.6059710714427152,0.26251956002600696,0.8991847873200233,0.6469104200286951,0.09170252495546394,0.7575544702384743,-0.8874441574466906,-0.29698059687992107,-0.4088087727615312,1.0487706966034407,0.4608423330835118,-0.10317488777761631,-0.2905593584855104,-0.7528291483310326,-0.19217447860877213,-0.23935696886026617,1.0248986571312408,0.6803062698015944,0.29032150564476555,0.5824118789179894,0.03953287540002027,-0.1959637070827976,-0.029931887205391045,0.3247682829836323,0.8914398813410301,-0.5886042259785044,0.1740898261078912,0.5747063577385242,-0.7311045542141114,0.5804506196363891,-0.44162907541287566,0.4058584410754314,0.9696500352918243,-0.6267436742790625,-0.07623943424413611,0.3034690445897235,-0.6674628164400466,0.25389210217754127,0.9606313531066831,0.5619649140546348,0.31900943678401644,-0.17692018469150786,-0.6738658169017971,0.13303340856914256,-0.4758392350209105,-0.5401938127011959,0.9405656439932362,0.9873370177675497,-0.47999310932786177,0.18242360491847584,0.46877036466342303,-0.9238037595235106,-0.8271314247465998,0.5442066535312535,0.1008108830342979,-0.5101363766580653,0.7689283399386805,-0.696638784120372,-0.5614198267148757,0.7585383424995088,-0.5662544459997884,-0.928155142489029,-0.0700148723279893,0.2713099126756535,0.6781251683293609,-0.3383221551686539,-0.12605244319691486,0.31442266324186036,0.8389314974580685,-0.8934875924757536,-0.4235877620373147,-0.8181955572982255,0.3394050522845354,-0.5586083212826679,-0.0973854018484292,0.9522264649848898,0.9062302156399579,-0.17333533889042282,-0.385896321855931,0.7384854245424085,0.890519222478854,-0.21541126414991363,0.341799914782599,0.3828460376586023,-0.6816431449419736,-0.7626748867028529,-0.6716465850884844,0.8818535942867688,0.9693849303708332,0.15454441488633722,-0.19478240445528439,0.49281525370955725,0.5437669620795433,0.7393447187055157,-0.9145011346077642,0.07794340271554608,0.8352254006784984,-0.6082390091106297,-0.6870316073595096,-0.43817922222316374,-0.40053242478889456,0.3770479386470092,-0.8944019395093238,-0.9047988169803346,0.549680064061377,-0.050306537236095364,-0.4135895136361138,-0.38414381649478874,-0.09357622282883403,-0.2644728148537505,-0.4318666495133056,0.6211977843170845,0.7489692929873796,0.08161395795654657,-0.35243917824942644,0.9027195852350681,0.4060204203724363,-0.1839062443201901,0.0723621807374642,-0.13945909586411684,0.2436987887817149,0.7810581187865918,0.15964912172778,0.20197924629599048,0.8734019307785431,-0.5685590631396737,0.8990830229194499,-0.14262013864192333,0.7628670895922426,-0.16309438547177255,-0.3496039364048413,0.5378696610960055,0.8172400988940619,0.9715480820332473,-0.6180532818547685,-0.8518960361945466,0.9263432803209454,-0.30802333431193596,0.5189694092144151,-0.7997315746251409,-0.6867037027878348,0.610991398733108,0.38225101775002496,-0.6639214554511844,0.19397524448734088,-0.9266989431983031,-0.6025006730635724,0.2844240329951178,-0.47507172245531604,-0.8073552662354085,0.0743199852240027,0.7929039990635619,-0.3127497260164523,0.47280399086018365,0.10982532882363469,-0.4724206490266244,0.6254553202783758,0.9803411658121701,0.10335476190447627,-0.8732478544395831,-0.6374963133157793,0.8073631317394315,-0.14792755455693918,0.5572709739837503,-0.6659350208147686,0.3889284197552226,-0.6333660583730202,0.8626311947856108,-0.26285044203099495,0.7651050681670627,0.2970852347590518,0.03790709460592098,-0.0015210616144728172,0.6026207513742926,0.28299148120779666,-0.26587287771088286,-0.4315432644501906,-0.3176703050305425,0.6609113076234786,0.19645076262939745,-0.1568292737542791,0.33187172195424425,0.9352073521905265,-0.10495005205967912,0.4753604280775691,-0.13447085180366897,0.8378245103112204,-0.37615195399452145,-0.7876812118682769,0.9474211858993509,-0.42672212880799315,-0.285532833310414,-0.6136045592982687,1.055620283339624,-0.6572294241325763,0.2857173209919388,0.29629929465923405,-0.9166091689650594,-0.8659339254183548,-0.7093964613084832,0.43659070337134465,0.8401017759113633,0.8185426194645299,-0.4593797642798144,-0.24921301177533742,-0.1914043933033545,-0.2968112559943648,0.34425915313775485,0.25679706053727497,0.8275699198011893,0.10069077755031283,-0.776724446453788,0.4921110648173743,0.06249070779780745,1.0530512111124075,-0.774590224455122,-0.47731230837220057,-0.6659797901739032,-0.7567789507947104,-0.036369315758716526,0.591730812972825,0.13661602910372542,-0.033962572350267936,0.3123526793804099,0.9355755587089181,0.6473635715736125,0.05438299651122846,-0.6850183507314432,-0.8157174698978206,0.65963583566583,0.5786167761982594,0.414598747316451,0.45252329494913035,-0.5797447263737815,-0.1071091034752874,0.06812497856726692,0.8115663628550188,0.16767327134563406,0.6311396779639872,0.7196707604561728,0.256179489321963,-0.8987844279675595,0.913066715140837,0.6231457338598564,0.3763796362738164,0.0478557175036113,0.85897930948133,-0.5730417579592139,0.3126622733997098,-0.21000826565075842,-0.5047208687618645,-0.02139145044460314,0.7250239948850948,1.0395137089805748,0.04607024552481476,-0.6862097916195401,0.4672084694800623,0.09706588890819404,0.9913026119207312,0.33758256601117204,0.5246183879325287,-0.46698695338008656,-0.13577424515008715,0.2950771507425173,-0.7104716461690185,-0.5630727012204599,1.0463759593505908,0.5029626187385116,0.6406578877821353,0.46718647833994914,0.8492326772798154,0.6539725269816771,-0.3157370927654898,0.5597030770057347,0.5179753877686122,0.03634313373816736,0.5763658041366179,0.13315434705889945,0.6676593713717881,-0.879468794628934,-0.43622298358602124,0.710891952350624,-0.327417698722487,-0.7406819773971886,0.21639641322321912,0.09061839007058292,-0.3443385089793071,1.0200041069270798,0.7398094183516898,0.9439049246570418,-0.16693006755891984,-0.1912490428041325,0.23706729710836041,-0.4290516777181694,0.04914327710798542,0.17409582217815328,-0.8065997217424635,-0.7150541610990183,0.5859460906232657,-0.32481967114136484,-0.5912402150094641,-0.015287609467301596,-0.04850329691229474,-0.3634809634070632,-0.8555316294516814,-0.3671395036388429,-0.3200999746924339,0.16117127437882264,-0.27600363744566075,0.83896834049645,0.5571003174022188,0.2890025757650863,0.2974067727425066,0.398501522870961,0.38770013991212965,1.039272267215598,-0.8311300737581481,0.2697305811434335,-0.8125014387043176,0.38424852368316814,0.7340660215058087,-0.19330653766967243,0.5478378815724473,-0.17678393200062684,-0.3749734612391257,0.2572205185858549,0.7835587869614334,-0.3841967488664872,-0.6719753330833843,0.9977935206902313,0.5786119817808343,-0.8609287640421303,0.0848971462585197,-0.8588216543668249,-0.7645305393727063,-0.9249462258195379,0.9304940648247291,0.35707548445813325,0.3099555749469561,0.5237767146035744,0.44759102166401393,0.3438140460731299,0.8679043116467821,-0.2765417943228895,0.7555407320846307,-0.26867674810579334,0.060959627233406234,-0.40547546133082196,0.48779303962373083,0.12558335762509248,0.9088433337066008,-0.28119895335919765,-0.8335485901960803,0.5279405037247088,0.31337475688492744,-0.5160573463161714,-0.665181732328051,-0.08867727305847166,0.6573805744176083,0.2811743004590401,-0.8276535857751192,0.6173840313483351,-0.5688552213507105,0.4525616977918559,0.013286737189729263,-0.8337192809467434,0.5487517494104762,0.515029996100947,0.5551963660809902,-0.46134923173144465,-0.3173820677383192,-0.6873969258700044,-0.5657066142271959,-0.0093773728708416,0.049570642063509834,0.2640729765123861,-0.20980955317792582,0.00947796154905211,0.4205399670354651,0.6107454972878187,0.2252112044923515,-0.8157684305491232,-0.2146502441264843,-0.5787978833573292,0.4876911348530132,0.2006844746880102,-0.8963854187472188,0.5774432150843413,-0.37738949252808957,-0.05889955047726311,-0.8183714085233461,0.5483499885524429,-0.23777440075012884,-0.10054377549212935,0.043277219772232166,0.5714537765166766,-0.2147459936699751,0.4537027287326831,0.9853800797803792,0.0811788574328886,-0.31318337949020536,-0.18574299803104155,-0.21229116545208043,-0.26379476924575845,0.9035913608946599,-0.2254211390859042,0.09324245202140732,0.4525306999444009,-0.7560880253524586,0.936405837806456,-0.7611082420246346,0.29842835511205235,1.0576936839663205,0.3201005602707921,-0.6940141128549003,-0.40483661974418145,-0.2470865746623297,0.02775853079269337,-0.01825740807424282,-0.482947585290613,0.299489754320376,0.6546167134353987,0.5284673435149638,0.4702152905095596,0.68081782499054,0.1331976947970452,0.4337529721944937,-0.6008555728097599,-0.14598429041361502,0.545437435395316,0.2562187298610589,0.5069310197697686,-0.8422014543909232,1.0523001707428512,-0.026982980213381903,-0.34741042801134076,0.4448135107959854,-0.43648154972695485,-0.07555841086457889,0.7447036130127641,0.8728967097251988,0.6560917145498927,0.7307044309587784,0.9649050496134595,-0.8216653166810491,-0.1688869395143395,-0.3422331873735373,0.7515626899122597,0.07037532673886598,-0.22545816733899998,-0.05590880365258375,0.3729251897685311,0.649738246304827,-0.4998737198173672,-0.11683292729977744,-0.8973139852307964,-0.6538193791842196,-0.4996322278244037,0.9772480605988063,-0.9277615773165379,0.7670135663033358,0.49825831768389733,0.49473692811794673,0.45502152992855194,0.9007056327548238,0.9052478074456004,0.6667053775099315,-0.7245226123317744,0.019807148317176494,0.4274318615268949,-0.39967062426915095,0.08409684944832821,-0.7818753076861807,-0.045907819083156026,0.814843051096317,-0.6540228985894744,-0.9091563059786766,-0.3301729936641486,0.38865963476549675,0.9375713420090508,0.8801373803465636,0.058312908338051965,-0.9212733041590938,-0.07072100576656234,-0.12009778544354789,0.6380814278942865,-0.40128293794596964,-0.41534339857264485,-0.4119888135441027,-0.27110976170189144,0.4556562468015511,-0.7242347298884354,-0.21009555577240097,-0.33474077925712237,0.8769681191609532,-0.6878677985100609,-0.46980724277421315,-0.7350551392372636,0.32119188906368207,0.002997564301335012,-0.34934375641503407,0.6066349699171648,-0.5617458481786625,0.7363928479921572,-0.24974110283274614,0.4293813951594546,0.50100297900917,0.08940214426625846,0.8584318061621038,-0.3206778931846207,0.37218868499208463,0.9273384596942525,-0.7281965422736257,0.3800254750253594,0.21382570655182087,0.37957764815375655,-0.5398268685846486,0.936130360915739,-0.4433871842349927,0.24712651890135107,-0.7836466193393036,-0.8084788557859622,-0.3190760548661867,-0.6798681164756991,0.32775983405673587,0.5146890199659685,0.6904552500373088,0.019025977675405,0.9308436844103403,-0.12315049453677289,-0.3161804341066712,-0.39360087906489544,-0.19491530294181178,-0.4647902635923637,0.8985342836647333,-0.50047508535862,-0.08398825656114046,-0.4983980202472431,-0.6685511541556014,1.0403823789948405,0.3348681304516166,-0.7148155855147619,0.27413811702827473,-0.2424237902423646,-0.16867924266219514,-0.5714712979691642,-0.0599713221447805,-0.8298345634709227,0.48111182105246286,0.4338949832646752,-0.9323848041158399,-0.5348008678853311,1.0010666121099643,0.29862394605581694,-0.8695061781501313,0.0736456523803122,-0.28923095541934685,-0.39813553264647833,-0.38042026123252376,0.30778132163910477,-0.3260012612828402,-0.24697517614377867,-0.8917455097630714,0.5636609210123738,0.9388469327218922,0.6722959914940271,0.32441120739379753,-0.1692127915773787,0.5809749232674065,0.041215963706762095,0.2797530899442248,0.7368134649370738,-0.422335523148968,-0.5148100031638758,-0.26948643895472413,0.7188725610165979,0.9621531764418295,-0.8547620624989708,0.34485811057172994,0.73926130455469,-0.22025580304730932,-0.007485959183875474,0.9158316236708793,-0.5189372569943564,0.3877909589028988,-0.004833362458640839,-0.416349744240831,0.24559437581822052,0.9022209767043013,-0.8223272429112992,0.19894518445087295,-0.8643488898345405,0.6517006913322178,-0.8165375442624593,-0.8077689628044303,0.6104029594196901,-0.5000814263268324,0.5703102943400599,0.42376207439628893,0.9540005599832005,0.6076728270055644,0.6275991162993587,0.7072306033579895,0.46488307526979206,-0.1410650149579567,-0.33241097068288966,0.6577096112316668,0.6839761159067747,0.23890939072818473,0.5891080057649215,0.4317847525125613,1.0563956447327694,0.5982250286125789,0.3193699677167748,-0.7798783500577616,0.9008443203299875,-0.4934336995695624,0.16169878610461907,-0.7937099336054326,-0.2902829826084519,0.13570726397790084,-0.3495107510534405,0.530015247339032,0.16461563203513876,-0.06261014375987799,0.03220481519194098,-0.33645468911709625,-0.010658575715316256,0.3877998221568429,0.6219664270530686,0.15691510572648928,-0.24162591651796902,-0.11366115542589732,0.07308206928397062,-0.902207743596552,-0.7734515453658651,-0.9115587475628167,0.8697961957288199,-0.7502533293065164,0.11118664802025223,-0.37036984357331754,-0.6126742908356747,0.34326864184611955,0.9584920381066145,0.3474065470000454,-0.7074916334886342,0.6086234557895379,-0.17361012412999524,0.49576542378024524,-0.5820544042747001,-0.5132009637302503,-0.05228622597094083,0.28172640885319067,0.08175105788097223,-0.7967225464590258,0.005174784638598701,0.16022815157922535,-0.17230813269216097,0.3391692987027431,-0.907676800782739,-0.54116902828817,0.5064722803080146,1.0342774443595293,0.9815586012026949,1.0082493858996986,0.9345721458520758,-0.3127873786072089,-0.26593617306117334,0.3623479708613611,0.07034744305063308,-0.039713697840748165,0.27218877588617896,0.271825233256692,-0.7441835545821095,0.5747156937116055,0.23311925718698573,1.0356945704965925,0.5570479788804554,0.10319047682871944,-0.6871959501187238,-0.8577776953039754,0.054828479450596754,0.6142586117097703,0.43009001037153266,1.00861219512164,0.5089144278728731,-0.776393698992116,-0.9139491498409306,0.7998587042942437,-0.22230074471875874,-0.36570301168631575,-0.5270298052880856,-0.8673693897394069,0.24966472740487117,-0.5270506438278327,0.5479429282847065,0.5614500438879204,0.7633922305867139,-0.20808150249189283,0.4142876893963368,-0.06646727212653492,0.3727924610191005,-0.24331380017089674,-0.6828478213246946,1.0527505340062573,-0.3210033534680759,0.18997201825967397,0.10784746855657559,0.11478756821736097,-0.6252168252667297,0.2250417191940101,-0.8002789268431633,0.71884326255669,0.38404417238041094,-0.46045325138983395,0.5606317214294108,-0.7827464426057041,0.7338618650419869,0.638032390988856,-0.8122021367994504,1.040169441218211,0.8562461097564978,0.7287489081641357,0.2695218078957929,0.07581918427429665,-0.8836625180836443,0.6035949005619373,-0.026706451378169193,0.05312565392111781,-0.4932033301139978,0.024847399217733792,-0.7437406867014474,-0.21906530867435467,-0.6229337476029236,0.30173837797689995,-0.5049987611732542,0.5385033947718412,0.5373162107561527,0.9612151918455072,-0.5848699292555363,0.3632065631637345,0.3738662599818033,0.09947228883413248,-0.5908082042228399,0.39879571499356975,-0.08873421929212666,0.5954085200772449,0.6633230438235657,0.08781707469377972,0.11968550669630099,0.35691848953302135,-0.39235747815963945,1.063977133233463,-0.2849591876804606,-0.07903907275867984,-0.32428259368882356,0.9672715976541812,0.9692258544623589,-0.3008470558944325,0.31984054746707985,-0.06859214002374132,-0.5950980613648481,-0.6353933783076501,0.20263730646004482,-0.15853674050443464,0.8120063957520586,0.3400866735711548,0.2934537116024231,0.6127844258788165,-0.652373598109606,0.7966443094998804,0.3842997966078053,-0.17844810902775704,0.5741045007410336,0.25374340103127707,-0.7953169666679113,0.18440681249190244,-0.4529879655410321,0.5858834256149373,0.21177852039526,0.5092380457827596,0.5683761716139178,0.13576292792443242,-0.4895432653926841,-0.4426610130746209,0.9279356521502956,0.20329958851092642,-0.8898560161334238,0.10595520763653282,0.5041607616673643,0.7186946309202743,-0.4207116065578353,-0.2419489067160789,0.30274931676361716,-0.9292367945086043,-0.2197124846701805,-0.5340356700647046,-0.2805563451132619,-0.450480295453195,-0.6706548506494833,0.4242039487028538,0.5889878523671205,0.05118113824449464,-0.5765052694251461,0.3921404229642825,-0.782933685854121,-0.532750359131233,-0.417436405591697,0.20417513009510493,0.4087840370833114,0.6433418080405372,-0.62178875015785,1.0664482952717258,0.6514739839277132,0.1853946146060327,0.3158409094798833,-0.6030678547200802,0.785100255917682,1.0241967269867243,0.6034254456302991,0.4536009199311778,0.9344973486915304,-0.3304504601128257,-0.9048064954002631,0.9217499377650592,-0.783453665045038,-0.6913546900840676,0.16090640959349753,-0.4995522447481822,0.46916986182792886,0.583532962796928,0.39061293287519955,0.6946425995231019,-0.528518528822267,-0.24706321223785482,0.6152884961990922,-0.1592230211465122,-0.06502288826601037,-0.8623481159387253,-0.756006208473459,1.0115698903628947,0.14370449986046557,0.9354966573645453,-0.8391628854248961,-0.01935641821091931,-0.6842336454755819,-0.15148947246957123,-0.13092660407100265,0.8848563908565888,0.9824885218348074,0.16658153492915825,-0.2554990959631322,-0.03077780545159372,-0.820624827236318,0.7931008003630297,0.4940076746124243,-0.6399907251057256,0.8723247176270691,0.3458595775731424,0.08984828289525253,0.25527932562299943,-0.14575184670071967,-0.17779940526000634,-0.8194853460899573,-0.1334582580904798,-0.03864452280712897,-0.4189918535469643,-0.7818230631154591,-0.3137149959824357,0.06918744254238549,-0.6030124494032628,-0.8770826523942793,-0.49197415489424323,1.017161152195998,0.8514231874892805,-0.5434330540170412,0.46571338226569087,0.7530681950107369,-0.1174564463066266,0.6454582966418755,0.5916563980545312,-0.045353714552051,-0.9203655227032902,0.16039936667800123,-0.593325327470953,-0.8656077983293443,-0.23810384887947983,-0.7752717254531017,-0.7254438217748006,0.14591377074143005,0.009809137373923553,-0.29027926305890633,-0.649488080389489,0.7332939496082768,-0.6913567523243261,-0.32469450270996364,-0.3095314555556902,0.12969217239752204,-0.4772990201073388,0.2697969848991629,-0.46194832904035915,-0.13451845830887432,-0.20551254198840266,0.992813555854342,-0.06304350389831256,0.12548966557289332,-0.9122710623741698,0.5051001909482287,0.21804690817583328,0.9952994641317157,0.8923419004064527,0.2025949883864864,0.6811222744492179,-0.3651824524797455,0.355356940411016,0.3235362307589596,0.7023213127902991,-0.7613692472500052,0.6609678990505353,0.29564627435405205,-0.9010871423269534,-0.6528082711260891,-0.548568073483567,0.12487299724297071,0.25488843321616556,0.015080614778185644,0.6449768887864568,0.09631122267340772,-0.8985249841501158,0.8424637051061831,0.1504633224778754,-0.3613935329524864,0.8924172571438073,-0.37767911235452684,-0.874665448507779,-0.2750578520492298,-0.33682643880546465,-0.44114502721449084,-0.18903271905635013,-0.3162019390831874,0.4880709401600666,0.35748511203908123,-0.26173900922012633,-0.010176155407556719,0.20936896200079216,-0.7487273089690377,0.17595731211669907,-0.308653367241031,-0.5372054778442239,-0.22881479891671752,0.002526074929443254,0.17441661218402552,0.33347872460460654,0.07997638470345658,0.03793290278653098,0.6722494734822416,-0.6837498317557135,0.5062847014194564,-0.5982264473332316,0.23677950811019788,-0.7975963076877174,0.352221721864902,0.26462352787808774,0.533351128436941,0.924796551666052,0.9416697255870863,-0.13617674070173658,-0.17382336240227642,-0.5590802986246629,-0.9118617611605239,-0.8235351105930112,0.8237005959584304,0.32080984511146654,-0.10356730662817833,-0.31282402191240416,0.6838268942162163,-0.6405503976542938,-0.1263675976787075,-0.8472353440691417,-0.11055429024966174,-0.06130453965294339,-0.04927067843433311,-0.3870483192821212,0.6708708934979338,-0.35674451233675136,-0.38029614753324686,0.963007286996689,-0.6679298325514323,-0.7211843448278735,-0.9278127919980946,0.06390129396722151,0.8128701479376393,-0.09398974214725747,-0.5530774178514158,-0.47318101394729567,-0.8100360702803545,0.3123507561937598,0.4677724172689078,-0.12011663890007533,-0.4785560415886944,-0.43037060799379584,0.07189848020634358,-0.07156612100726437,-0.852655133517828,0.6561960787241349,0.18499749052779554,0.8074620376391698,-0.8183366842449954,0.3506162143435588,0.17684925338085167,-0.40312086589907964,-0.28452342924337987,0.1377002626463704,-0.3111012918088283,-0.7071714816596407,-0.5326959814583861,-0.32858512580643534,-0.47060378188284846,0.866904448324621,-0.1967608638756797,-0.5223489164128318,-0.7327504119185168,0.22037244915194765,-0.14358023129450023,-0.1277693973531549,-0.10143065832062494,0.7243035704392738,-0.8240941592801635,-0.039114336152781516,-0.732817051653737,-0.7266452001191871,0.021882431299531487,0.5906580651928509,-0.43661748550302504,0.4906440973095208,-0.49149857643600997,1.0321026227260635,0.5567334862302986,0.6817510825656888,-0.7640313212173598,0.9854727870148872,0.7381453359054243,0.4690434161141449,0.005267386938809999,0.41872363011844943,0.01424597799234039,0.8007101173267058,-0.9105523662239404,0.15240680973042076,-0.12435834181885347,0.1313679933916683,0.2593454771876564,-0.5433974473587431,-0.3692164015970835,-0.4616961577313506,0.35415411352614684,0.6993111237460358,0.07325801833524603,0.01163002525572223,0.5749486846792436,0.3073434680374593,-0.4773780003550124,0.9115685392126759,-0.7922999393371658,0.9775127990219705,0.46541727738491456,0.14553614982778323,-0.26806247431477,-0.3501847602430949,-0.6124489035893944,-0.8942163679884602,-0.9026251976931167,-0.08531021823086077,0.27452044981274204,0.4295134567270573,-0.3310614989346005,0.23170530815051543,0.27629180243779095,-0.8145095636998104,0.520093656697817,-0.5474204614476987,0.9600488040830248,-0.1168682156401442,1.063604926460523,0.10032663432786115,0.12228018234653752,-0.5329346034913163,-0.9283570297878986,-0.8831705934378936,0.8853740709933181,-0.648910283281335,0.9490535076093685,-0.04714910848432922,-0.6919939069301889,0.2558903273867284,-0.31439205173998863,0.135732812023194,0.6703159145496173,-0.7022822674177523,-0.8800251430374747,0.9113997873596363,-0.8754703505516875,0.5133365933951152,0.5116346225622027,1.0379010330823724,0.8096754742716686,-0.5097075574685663,-0.308843358570951,-0.7217792923232996,0.5527241296818164,0.4443687059612569,0.30705922946287156,-0.4820886629833106,-0.2163620951154529,-0.9101495342635816,0.3537914478242837,0.19807634250298703,0.2146173407678185,1.0432065964224198,-0.34662394815199676,0.7253467771755041,0.8282865215946876,-0.01911903221633346,-0.2934899451945508,-0.5668522957139268,-0.08693669870892089,-0.08155174838197266,-0.44247838394608185,-0.27827550078057245,-0.6628635444026098,0.2180549344459437,0.1765976528701724,0.5089638235966444,0.6948062991182892,1.0369099168816702,0.706290364380514,-0.19354293662730165,-0.022190474972736886,0.1992155576967645,-0.31667378113358596,-0.17869479604329086,-0.7061578619461119,0.25595567512884654,1.0249551371421628,1.0515429745472362,-0.289490514430851,0.539398841406501,-0.907483849620159,-0.7998616513046258,1.0099123558027499,0.4003991542374124,-0.20806287593517475,0.5068900858770597,1.0238222516574504,0.7655481087438604,0.19608409868412827,0.789251050342049,-0.7706301111148349,-0.37874449998445797,-0.3007139822140193,-0.4497698482055807,-0.15804708656650832,-0.3267168036143901,0.679360538127684,0.2835177652482736,0.2756911889773274,0.4890559155988513,0.5457367595079495,0.44112365803406,-0.8105932823919423,0.5457413810676112,-0.37106139067153093,-0.6851612441979019,0.6284900433903532,-0.5853445034185395,-0.6599607840568308,0.684405222437437,-0.09883308720599734,0.9282239831139653,-0.12470895378072532,0.69548173082918,-0.8104401541737548,0.16822273145371816,0.5213226240208508,0.17811725953992258,-0.6523866616754975,0.03873012746772448,0.7814595692441807,0.9849297243773399,0.49598634913259015,0.1771263379355084,-0.23248758286616583,-0.06164624536831502,-0.35467921183667567,-0.3181269959147312,-0.7668989225310919,0.9737418368944635,0.6846399248168141,1.0333865185241067,1.0018743669232149,-0.29726986736996164,0.7250133822680479,0.4782235637021114,0.44432533134790353,0.7380428496125399,0.6232789800607558,-0.4210255725292564,-0.3428925058959577,-0.8100200684830962,-0.20029134503951662,0.5272235628183954,-0.3558316972005872,-0.6578482628269097,-0.5292477307294585,0.5485179790407285,0.617895628515445,0.1838457248199592,-0.875151793689258,0.45719706906446855,-0.20246159894471039,-0.04438354602172148,-0.4744585116128548,-0.441418250917151,-0.363527780667147,0.2629899345393463,-0.07085116509185391,-0.16496492313574862,0.4212871429455823,0.49758954302134284,-0.2532568492942126,0.9119420956204011,0.6452781470271948,0.846833212673117,-0.37098749197837017,0.6210990270430697,-0.5579639912776434,0.8399920027822406,-0.5705877515728012,-0.6212292355000014,-0.4103435667991759,-0.8986940340481776,-0.5578830733476419,0.7752649420110974,-0.9208638485151547,0.28922645867113383,0.6021394388833344,0.8903162372117545,0.7849994800700869,0.4362980313100478,0.617409552594587,0.24470235634967838,0.8607349060153279,0.0846000103881577,0.7086596032416715,0.6126756351464481,-0.4874682501697042,0.4117899230901863,-0.17654115271232362,0.5638857016325721,-0.23291787943835998,-0.18085433290766736,-0.3708908215328059,-0.05521852860368778,-0.7382972410146019,0.6331323679971529,0.6113774346374566,-0.08454743933865484,0.4876048456553234,0.6371965682771911,0.20064659017221073,0.9975437766860223,0.7952096035887027,-0.9291814153477794,0.4862665308566571,0.1869441774064918,-0.004282359016995103,1.0409814406811528,-0.4663846281144569,-0.52885832622267,0.7066450012411923,0.41235657388929453,0.40632963156277585,0.5747953367408828,-0.24560234425358782,0.427525557707005,0.07908341712355225,0.3423024641345554,-0.8870165042076686,0.8475987360433449,0.37210221561020435,0.7025830999040966,-0.5348449683474096,-0.8072686682863418,0.183025063421968,-0.4473751863614648,-0.7958707245398556,0.9333494576790948,0.2841840123124835,-0.705516042857606,0.8597785734254338,0.235242105521969,-0.7727662974041115,-0.7933063330350375,-0.6053167457036298,0.5000330908812497,0.16873878826657232,-0.6616502093620279,1.0257244024638874,0.16414604031596428,0.523887405773767,0.06337698239852654,0.22244429241015432,-0.7952841598358124,-0.6114293903377265,0.49900063731455024,-0.6498300728441889,1.0402391796810015,0.9773201573041581,0.9425510721782969,-0.13802950836465638,1.0601697559983165,0.6573490434115069,-0.8027053641976124,-0.4827902659297868,0.4622676094473633,0.5632640821530864,0.889052532264066,-0.12569809893583592,-0.5387309259006133,-0.7941387684386648,0.28236017971410104,1.0156380159279486,0.2640562807988709,-0.0710091516705741,0.7320842203376127,0.2918686201964227,0.6169716038825909,0.6445299762632274,0.1186619824690277,-0.7570014864510836,-0.16313476890763856,0.9570210628816087,-0.3094981734410617,-0.24971154609907306,0.6671717743433431,0.6469323169715805,-0.27386630772978077,-0.22210429989087085,0.23129585913732317,0.17761386181549346,-0.30578324914710514,-0.4852071137854582,-0.5127158332706319,0.5982984757154105,0.3034781757827446,0.5071548480422264,0.04353281721349438,-0.28785342654368884,-0.17696962987625828,-0.9130652769306321,-0.5261989631122558,-0.43050538601027605,-0.4217327758850051,-0.0068530185917630645,0.7892568567414348,0.5325681437723404,-0.3099513145921943,-0.756478500674134,0.5713170010480954,0.026431828505024683,-0.609789393798655,-0.09566146410871235,0.8766222246099936,-0.5523708128281584,-0.05931641995441077,-0.511478229555884,-0.34002710437584643,0.16473349802553044,0.4742628698650016,-0.5403140012819494,-0.4262338031563037,-0.21498352207003313,0.0981379725183726,0.8772629585644022
